<?xml version="1.0"?>
<opencv_storage>
<cascade>
  <stageType>BOOST</stageType>
  <featureType>HAAR</featureType>
  <height>24</height>
  <width>24</width>
  <stageParams>
    <boostType>GAB</boostType>
    <minHitRate>9.9500000476837158e-01</minHitRate>
    <maxFalseAlarm>5.0000000000000000e-01</maxFalseAlarm>
    <weightTrimRate>9.4999998807907104e-01</weightTrimRate>
    <maxDepth>1</maxDepth>
    <maxWeakCount>100</maxWeakCount></stageParams>
  <featureParams>
    <maxCatCount>0</maxCatCount>
    <featSize>1</featSize>
    <mode>BASIC</mode></featureParams>
  <stageNum>18</stageNum>
  <stages>
    <!-- stage 0 -->
    <_>
      <maxWeakCount>2</maxWeakCount>
      <stageThreshold>-9.3445777893066406e-02</stageThreshold>
      <weakClassifiers>
        <_>
          <internalNodes>
            0 -1 17 -1.7178107053041458e-02</internalNodes>
          <leafValues>
            9.0769231319427490e-01 -8.9002037048339844e-01</leafValues></_>
        <_>
          <internalNodes>
            0 -1 34 2.1054700016975403e-02</internalNodes>
          <leafValues>
            -8.8115602731704712e-01 7.9657459259033203e-01</leafValues></_></weakClassifiers></_>
    <!-- stage 1 -->
    <_>
      <maxWeakCount>4</maxWeakCount>
      <stageThreshold>-7.6175439357757568e-01</stageThreshold>
      <weakClassifiers>
        <_>
          <internalNodes>
            0 -1 5 8.0936133861541748e-02</internalNodes>
          <leafValues>
            -9.2849159240722656e-01 8.3363693952560425e-01</leafValues></_>
        <_>
          <internalNodes>
            0 -1 65 1.9053239375352859e-02</internalNodes>
          <leafValues>
            -8.5123723745346069e-01 7.2089338302612305e-01</leafValues></_>
        <_>
          <internalNodes>
            0 -1 47 -1.0422023478895426e-03</internalNodes>
          <leafValues>
            5.7186895608901978e-01 -7.6825046539306641e-01</leafValues></_>
        <_>
          <internalNodes>
            0 -1 29 1.9016647711396217e-02</internalNodes>
          <leafValues>
            4.4610548019409180e-01 -8.9657318592071533e-01</leafValues></_></weakClassifiers></_>
    <!-- stage 2 -->
    <_>
      <maxWeakCount>3</maxWeakCount>
      <stageThreshold>-8.9211118221282959e-01</stageThreshold>
      <weakClassifiers>
        <_>
          <internalNodes>
            0 -1 67 -1.2597320601344109e-02</internalNodes>
          <leafValues>
            8.0692166090011597e-01 -8.7932962179183960e-01</leafValues></_>
        <_>
          <internalNodes>
            0 -1 2 4.9111839383840561e-02</internalNodes>
          <leafValues>
            -6.5435039997100830e-01 7.1876901388168335e-01</leafValues></_>
        <_>
          <internalNodes>
            0 -1 0 -6.1038583517074585e-03</internalNodes>
          <leafValues>
            6.4156883955001831e-01 -6.6274672746658325e-01</leafValues></_></weakClassifiers></_>
    <!-- stage 3 -->
    <_>
      <maxWeakCount>4</maxWeakCount>
      <stageThreshold>-5.0061166286468506e-01</stageThreshold>
      <weakClassifiers>
        <_>
          <internalNodes>
            0 -1 18 -3.9157398045063019e-02</internalNodes>
          <leafValues>
            7.5077497959136963e-01 -7.2012919187545776e-01</leafValues></_>
        <_>
          <internalNodes>
            0 -1 40 1.1459672823548317e-02</internalNodes>
          <leafValues>
            -8.2421410083770752e-01 6.2281268835067749e-01</leafValues></_>
        <_>
          <internalNodes>
            0 -1 14 1.1075950227677822e-02</internalNodes>
          <leafValues>
            -7.5433784723281860e-01 5.7968193292617798e-01</leafValues></_>
        <_>
          <internalNodes>
            0 -1 78 -1.8320720642805099e-02</internalNodes>
          <leafValues>
            -8.9879393577575684e-01 4.6404966711997986e-01</leafValues></_></weakClassifiers></_>
    <!-- stage 4 -->
    <_>
      <maxWeakCount>6</maxWeakCount>
      <stageThreshold>-9.5016682147979736e-01</stageThreshold>
      <weakClassifiers>
        <_>
          <internalNodes>
            0 -1 23 -1.9243292510509491e-02</internalNodes>
          <leafValues>
            -8.4131735563278198e-01 5.8911418914794922e-01</leafValues></_>
        <_>
          <internalNodes>
            0 -1 73 1.3751344755291939e-02</internalNodes>
          <leafValues>
            -6.6210728883743286e-01 5.4372197389602661e-01</leafValues></_>
        <_>
          <internalNodes>
            0 -1 74 -1.7549063777551055e-03</internalNodes>
          <leafValues>
            -7.5840330123901367e-01 4.2049565911293030e-01</leafValues></_>
        <_>
          <internalNodes>
            0 -1 6 -5.6901345960795879e-03</internalNodes>
          <leafValues>
            2.7762839198112488e-01 -8.9498603343963623e-01</leafValues></_>
        <_>
          <internalNodes>
            0 -1 58 -1.2918650172650814e-03</internalNodes>
          <leafValues>
            3.6489343643188477e-01 -6.8214070796966553e-01</leafValues></_>
        <_>
          <internalNodes>
            0 -1 76 -8.0192316090688109e-05</internalNodes>
          <leafValues>
            4.9994736909866333e-01 -5.0975966453552246e-01</leafValues></_></weakClassifiers></_>
    <!-- stage 5 -->
    <_>
      <maxWeakCount>6</maxWeakCount>
      <stageThreshold>-8.3102738857269287e-01</stageThreshold>
      <weakClassifiers>
        <_>
          <internalNodes>
            0 -1 45 3.7449590861797333e-02</internalNodes>
          <leafValues>
            -5.4204660654067993e-01 6.9260448217391968e-01</leafValues></_>
        <_>
          <internalNodes>
            0 -1 36 -3.0928587075322866e-03</internalNodes>
          <leafValues>
            -8.2250040769577026e-01 4.5122891664505005e-01</leafValues></_>
        <_>
          <internalNodes>
            0 -1 77 3.2263896428048611e-03</internalNodes>
          <leafValues>
            -7.8113192319869995e-01 3.2662788033485413e-01</leafValues></_>
        <_>
          <internalNodes>
            0 -1 60 -1.6151496674865484e-03</internalNodes>
          <leafValues>
            3.5328021645545959e-01 -7.3993146419525146e-01</leafValues></_>
        <_>
          <internalNodes>
            0 -1 20 1.9554402679204941e-03</internalNodes>
          <leafValues>
            -5.6988394260406494e-01 4.2877930402755737e-01</leafValues></_>
        <_>
          <internalNodes>
            0 -1 10 1.0719445347785950e-01</internalNodes>
          <leafValues>
            -5.0165295600891113e-01 5.3259199857711792e-01</leafValues></_></weakClassifiers></_>
    <!-- stage 6 -->
    <_>
      <maxWeakCount>5</maxWeakCount>
      <stageThreshold>-1.1172317266464233e+00</stageThreshold>
      <weakClassifiers>
        <_>
          <internalNodes>
            0 -1 44 2.3795340675860643e-03</internalNodes>
          <leafValues>
            -6.8176251649856567e-01 6.3710147142410278e-01</leafValues></_>
        <_>
          <internalNodes>
            0 -1 31 5.1945470273494720e-02</internalNodes>
          <leafValues>
            -5.0879645347595215e-01 7.0654642581939697e-01</leafValues></_>
        <_>
          <internalNodes>
            0 -1 62 2.3775021545588970e-03</internalNodes>
          <leafValues>
            3.2762041687965393e-01 -9.5986700057983398e-01</leafValues></_>
        <_>
          <internalNodes>
            0 -1 71 -1.8061321461573243e-03</internalNodes>
          <leafValues>
            3.6980181932449341e-01 -6.1032176017761230e-01</leafValues></_>
        <_>
          <internalNodes>
            0 -1 56 -2.6475824415683746e-03</internalNodes>
          <leafValues>
            3.5602867603302002e-01 -7.7050799131393433e-01</leafValues></_></weakClassifiers></_>
    <!-- stage 7 -->
    <_>
      <maxWeakCount>4</maxWeakCount>
      <stageThreshold>-1.3976880311965942e+00</stageThreshold>
      <weakClassifiers>
        <_>
          <internalNodes>
            0 -1 38 1.9726408645510674e-02</internalNodes>
          <leafValues>
            -6.5660768747329712e-01 7.4193549156188965e-01</leafValues></_>
        <_>
          <internalNodes>
            0 -1 11 8.6975306272506714e-02</internalNodes>
          <leafValues>
            -8.0619561672210693e-01 6.4999669790267944e-01</leafValues></_>
        <_>
          <internalNodes>
            0 -1 1 7.7702687121927738e-04</internalNodes>
          <leafValues>
            -8.3795088529586792e-01 4.8720073699951172e-01</leafValues></_>
        <_>
          <internalNodes>
            0 -1 8 2.5884760543704033e-03</internalNodes>
          <leafValues>
            -5.5312621593475342e-01 7.3862516880035400e-01</leafValues></_></weakClassifiers></_>
    <!-- stage 8 -->
    <_>
      <maxWeakCount>3</maxWeakCount>
      <stageThreshold>-8.6742973327636719e-01</stageThreshold>
      <weakClassifiers>
        <_>
          <internalNodes>
            0 -1 63 1.6780141741037369e-02</internalNodes>
          <leafValues>
            -9.1523480415344238e-01 8.0347514152526855e-01</leafValues></_>
        <_>
          <internalNodes>
            0 -1 53 -2.5795651599764824e-03</internalNodes>
          <leafValues>
            6.6433340311050415e-01 -6.6948330402374268e-01</leafValues></_>
        <_>
          <internalNodes>
            0 -1 12 2.3266414646059275e-03</internalNodes>
          <leafValues>
            -6.4433979988098145e-01 7.1728837490081787e-01</leafValues></_></weakClassifiers></_>
    <!-- stage 9 -->
    <_>
      <maxWeakCount>5</maxWeakCount>
      <stageThreshold>-6.9570779800415039e-01</stageThreshold>
      <weakClassifiers>
        <_>
          <internalNodes>
            0 -1 35 2.0486611872911453e-02</internalNodes>
          <leafValues>
            -6.5275907516479492e-01 5.7087272405624390e-01</leafValues></_>
        <_>
          <internalNodes>
            0 -1 54 -3.0174045823514462e-03</internalNodes>
          <leafValues>
            4.2948198318481445e-01 -7.2823500633239746e-01</leafValues></_>
        <_>
          <internalNodes>
            0 -1 79 -4.1079428046941757e-03</internalNodes>
          <leafValues>
            5.2385044097900391e-01 -6.0146832466125488e-01</leafValues></_>
        <_>
          <internalNodes>
            0 -1 75 4.3957054615020752e-02</internalNodes>
          <leafValues>
            -3.9494726061820984e-01 7.7585536241531372e-01</leafValues></_>
        <_>
          <internalNodes>
            0 -1 21 2.0694550126791000e-02</internalNodes>
          <leafValues>
            -6.0133391618728638e-01 5.8925884962081909e-01</leafValues></_></weakClassifiers></_>
    <!-- stage 10 -->
    <_>
      <maxWeakCount>5</maxWeakCount>
      <stageThreshold>-6.2554901838302612e-01</stageThreshold>
      <weakClassifiers>
        <_>
          <internalNodes>
            0 -1 37 9.1408274602144957e-04</internalNodes>
          <leafValues>
            4.9243533611297607e-01 -9.4726169109344482e-01</leafValues></_>
        <_>
          <internalNodes>
            0 -1 50 2.0650615915656090e-03</internalNodes>
          <leafValues>
            -6.6904747486114502e-01 4.3592014908790588e-01</leafValues></_>
        <_>
          <internalNodes>
            0 -1 7 -1.7524559050798416e-02</internalNodes>
          <leafValues>
            -8.0440711975097656e-01 3.2848435640335083e-01</leafValues></_>
        <_>
          <internalNodes>
            0 -1 26 -4.2248181998729706e-02</internalNodes>
          <leafValues>
            3.9717090129852295e-01 -6.6317749023437500e-01</leafValues></_>
        <_>
          <internalNodes>
            0 -1 19 2.9067171737551689e-02</internalNodes>
          <leafValues>
            -8.3986276388168335e-01 2.8917947411537170e-01</leafValues></_></weakClassifiers></_>
    <!-- stage 11 -->
    <_>
      <maxWeakCount>5</maxWeakCount>
      <stageThreshold>-1.1803874969482422e+00</stageThreshold>
      <weakClassifiers>
        <_>
          <internalNodes>
            0 -1 64 -1.3611729955300689e-03</internalNodes>
          <leafValues>
            5.8881580829620361e-01 -7.4094706773757935e-01</leafValues></_>
        <_>
          <internalNodes>
            0 -1 43 2.4098586291074753e-03</internalNodes>
          <leafValues>
            -7.2069275379180908e-01 5.1042288541793823e-01</leafValues></_>
        <_>
          <internalNodes>
            0 -1 68 3.7170443683862686e-02</internalNodes>
          <leafValues>
            -7.0730888843536377e-01 4.5176294445991516e-01</leafValues></_>
        <_>
          <internalNodes>
            0 -1 4 1.1343005113303661e-02</internalNodes>
          <leafValues>
            -5.5475562810897827e-01 5.6623703241348267e-01</leafValues></_>
        <_>
          <internalNodes>
            0 -1 61 1.2078845174983144e-03</internalNodes>
          <leafValues>
            3.1220120191574097e-01 -8.3663904666900635e-01</leafValues></_></weakClassifiers></_>
    <!-- stage 12 -->
    <_>
      <maxWeakCount>4</maxWeakCount>
      <stageThreshold>-4.5502927899360657e-01</stageThreshold>
      <weakClassifiers>
        <_>
          <internalNodes>
            0 -1 66 1.9003376364707947e-02</internalNodes>
          <leafValues>
            -7.3019802570343018e-01 6.5282583236694336e-01</leafValues></_>
        <_>
          <internalNodes>
            0 -1 4 1.4448363333940506e-02</internalNodes>
          <leafValues>
            -5.0522601604461670e-01 6.7985719442367554e-01</leafValues></_>
        <_>
          <internalNodes>
            0 -1 57 3.6131772212684155e-03</internalNodes>
          <leafValues>
            -7.4894171953201294e-01 4.4861018657684326e-01</leafValues></_>
        <_>
          <internalNodes>
            0 -1 24 2.1328881382942200e-02</internalNodes>
          <leafValues>
            -9.3642061948776245e-01 3.4425327181816101e-01</leafValues></_></weakClassifiers></_>
    <!-- stage 13 -->
    <_>
      <maxWeakCount>6</maxWeakCount>
      <stageThreshold>-1.2031254768371582e+00</stageThreshold>
      <weakClassifiers>
        <_>
          <internalNodes>
            0 -1 55 -2.0003633107990026e-03</internalNodes>
          <leafValues>
            7.0309537649154663e-01 -5.9541189670562744e-01</leafValues></_>
        <_>
          <internalNodes>
            0 -1 9 -6.0388678684830666e-03</internalNodes>
          <leafValues>
            5.5215477943420410e-01 -7.7318906784057617e-01</leafValues></_>
        <_>
          <internalNodes>
            0 -1 3 -1.2652135454118252e-02</internalNodes>
          <leafValues>
            7.1373957395553589e-01 -4.7809794545173645e-01</leafValues></_>
        <_>
          <internalNodes>
            0 -1 80 -4.3379389680922031e-03</internalNodes>
          <leafValues>
            7.3546665906906128e-01 -3.9691200852394104e-01</leafValues></_>
        <_>
          <internalNodes>
            0 -1 30 3.3109001815319061e-02</internalNodes>
          <leafValues>
            -7.1188586950302124e-01 3.9787259697914124e-01</leafValues></_>
        <_>
          <internalNodes>
            0 -1 13 6.9119087420403957e-03</internalNodes>
          <leafValues>
            -4.8976588249206543e-01 6.0753995180130005e-01</leafValues></_></weakClassifiers></_>
    <!-- stage 14 -->
    <_>
      <maxWeakCount>7</maxWeakCount>
      <stageThreshold>-1.2394597530364990e+00</stageThreshold>
      <weakClassifiers>
        <_>
          <internalNodes>
            0 -1 52 2.4919074028730392e-02</internalNodes>
          <leafValues>
            5.0448656082153320e-01 -8.7686568498611450e-01</leafValues></_>
        <_>
          <internalNodes>
            0 -1 72 1.3058745302259922e-02</internalNodes>
          <leafValues>
            -4.1057047247886658e-01 6.2784945964813232e-01</leafValues></_>
        <_>
          <internalNodes>
            0 -1 32 2.5341597199440002e-01</internalNodes>
          <leafValues>
            -3.3752283453941345e-01 7.0419585704803467e-01</leafValues></_>
        <_>
          <internalNodes>
            0 -1 41 -1.4464554842561483e-03</internalNodes>
          <leafValues>
            5.7819110155105591e-01 -5.2336031198501587e-01</leafValues></_>
        <_>
          <internalNodes>
            0 -1 83 -2.2667188197374344e-02</internalNodes>
          <leafValues>
            7.5923895835876465e-01 -2.5062900781631470e-01</leafValues></_>
        <_>
          <internalNodes>
            0 -1 42 3.5290555097162724e-03</internalNodes>
          <leafValues>
            2.7771329879760742e-01 -9.3556928634643555e-01</leafValues></_>
        <_>
          <internalNodes>
            0 -1 16 9.8502635955810547e-02</internalNodes>
          <leafValues>
            -4.9957698583602905e-01 4.5878240466117859e-01</leafValues></_></weakClassifiers></_>
    <!-- stage 15 -->
    <_>
      <maxWeakCount>5</maxWeakCount>
      <stageThreshold>-5.3417247533798218e-01</stageThreshold>
      <weakClassifiers>
        <_>
          <internalNodes>
            0 -1 51 2.7121873572468758e-03</internalNodes>
          <leafValues>
            -8.0740737915039063e-01 4.8851150274276733e-01</leafValues></_>
        <_>
          <internalNodes>
            0 -1 39 -2.2472094744443893e-02</internalNodes>
          <leafValues>
            3.5530054569244385e-01 -7.6731997728347778e-01</leafValues></_>
        <_>
          <internalNodes>
            0 -1 70 -5.3985351696610451e-03</internalNodes>
          <leafValues>
            -7.4356955289840698e-01 3.1798419356346130e-01</leafValues></_>
        <_>
          <internalNodes>
            0 -1 81 -4.3342951685190201e-03</internalNodes>
          <leafValues>
            4.1413301229476929e-01 -5.5582123994827271e-01</leafValues></_>
        <_>
          <internalNodes>
            0 -1 33 4.7294266521930695e-02</internalNodes>
          <leafValues>
            -7.6659977436065674e-01 3.0843764543533325e-01</leafValues></_></weakClassifiers></_>
    <!-- stage 16 -->
    <_>
      <maxWeakCount>4</maxWeakCount>
      <stageThreshold>-7.3326013982295990e-02</stageThreshold>
      <weakClassifiers>
        <_>
          <internalNodes>
            0 -1 48 -3.2971642911434174e-02</internalNodes>
          <leafValues>
            -8.4914839267730713e-01 4.1811355948448181e-01</leafValues></_>
        <_>
          <internalNodes>
            0 -1 25 5.7690367102622986e-02</internalNodes>
          <leafValues>
            -8.2342112064361572e-01 2.6247939467430115e-01</leafValues></_>
        <_>
          <internalNodes>
            0 -1 46 2.4009684566408396e-03</internalNodes>
          <leafValues>
            2.4737556278705597e-01 -9.2521923780441284e-01</leafValues></_>
        <_>
          <internalNodes>
            0 -1 22 -5.3200381807982922e-03</internalNodes>
          <leafValues>
            -8.4344488382339478e-01 2.6596742868423462e-01</leafValues></_></weakClassifiers></_>
    <!-- stage 17 -->
    <_>
      <maxWeakCount>7</maxWeakCount>
      <stageThreshold>-1.1850183010101318e+00</stageThreshold>
      <weakClassifiers>
        <_>
          <internalNodes>
            0 -1 27 -3.4558873157948256e-03</internalNodes>
          <leafValues>
            -7.8417265415191650e-01 4.9244713783264160e-01</leafValues></_>
        <_>
          <internalNodes>
            0 -1 59 -3.3818691736087203e-04</internalNodes>
          <leafValues>
            4.5175173878669739e-01 -6.4309531450271606e-01</leafValues></_>
        <_>
          <internalNodes>
            0 -1 82 2.1431615576148033e-02</internalNodes>
          <leafValues>
            -2.8760617971420288e-01 8.4725511074066162e-01</leafValues></_>
        <_>
          <internalNodes>
            0 -1 49 -1.2389259785413742e-01</internalNodes>
          <leafValues>
            8.5221415758132935e-01 -2.9472908377647400e-01</leafValues></_>
        <_>
          <internalNodes>
            0 -1 15 -3.0235906597226858e-03</internalNodes>
          <leafValues>
            4.3719407916069031e-01 -6.5246158838272095e-01</leafValues></_>
        <_>
          <internalNodes>
            0 -1 28 1.7493879422545433e-02</internalNodes>
          <leafValues>
            -4.1482669115066528e-01 6.1090224981307983e-01</leafValues></_>
        <_>
          <internalNodes>
            0 -1 69 3.7413195241242647e-03</internalNodes>
          <leafValues>
            -5.3168982267379761e-01 4.6403312683105469e-01</leafValues></_></weakClassifiers></_></stages>
  <features>
    <_>
      <rects>
        <_>
          0 0 6 7 -1.</_>
        <_>
          2 0 2 7 3.</_></rects>
      <tilted>0</tilted></_>
    <_>
      <rects>
        <_>
          0 0 12 2 -1.</_>
        <_>
          0 0 6 1 2.</_>
        <_>
          6 1 6 1 2.</_></rects>
      <tilted>0</tilted></_>
    <_>
      <rects>
        <_>
          1 9 19 6 -1.</_>
        <_>
          1 11 19 2 3.</_></rects>
      <tilted>0</tilted></_>
    <_>
      <rects>
        <_>
          1 10 4 14 -1.</_>
        <_>
          1 10 2 7 2.</_>
        <_>
          3 17 2 7 2.</_></rects>
      <tilted>0</tilted></_>
    <_>
      <rects>
        <_>
          2 3 6 12 -1.</_>
        <_>
          4 3 2 12 3.</_></rects>
      <tilted>0</tilted></_>
    <_>
      <rects>
        <_>
          2 8 19 9 -1.</_>
        <_>
          2 11 19 3 3.</_></rects>
      <tilted>0</tilted></_>
    <_>
      <rects>
        <_>
          2 12 11 10 -1.</_>
        <_>
          2 17 11 5 2.</_></rects>
      <tilted>0</tilted></_>
    <_>
      <rects>
        <_>
          3 0 5 10 -1.</_>
        <_>
          3 5 5 5 2.</_></rects>
      <tilted>0</tilted></_>
    <_>
      <rects>
        <_>
          3 3 2 5 -1.</_>
        <_>
          4 3 1 5 2.</_></rects>
      <tilted>0</tilted></_>
    <_>
      <rects>
        <_>
          3 4 6 6 -1.</_>
        <_>
          3 4 3 3 2.</_>
        <_>
          6 7 3 3 2.</_></rects>
      <tilted>0</tilted></_>
    <_>
      <rects>
        <_>
          3 4 12 14 -1.</_>
        <_>
          3 11 12 7 2.</_></rects>
      <tilted>0</tilted></_>
    <_>
      <rects>
        <_>
          3 8 15 9 -1.</_>
        <_>
          3 11 15 3 3.</_></rects>
      <tilted>0</tilted></_>
    <_>
      <rects>
        <_>
          4 0 2 7 -1.</_>
        <_>
          5 0 1 7 2.</_></rects>
      <tilted>0</tilted></_>
    <_>
      <rects>
        <_>
          4 0 11 2 -1.</_>
        <_>
          4 1 11 1 2.</_></rects>
      <tilted>0</tilted></_>
    <_>
      <rects>
        <_>
          4 0 14 4 -1.</_>
        <_>
          4 2 14 2 2.</_></rects>
      <tilted>0</tilted></_>
    <_>
      <rects>
        <_>
          4 3 6 6 -1.</_>
        <_>
          4 3 3 3 2.</_>
        <_>
          7 6 3 3 2.</_></rects>
      <tilted>0</tilted></_>
    <_>
      <rects>
        <_>
          4 4 9 12 -1.</_>
        <_>
          4 10 9 6 2.</_></rects>
      <tilted>0</tilted></_>
    <_>
      <rects>
        <_>
          4 6 8 6 -1.</_>
        <_>
          4 8 8 2 3.</_></rects>
      <tilted>0</tilted></_>
    <_>
      <rects>
        <_>
          4 6 13 6 -1.</_>
        <_>
          4 8 13 2 3.</_></rects>
      <tilted>0</tilted></_>
    <_>
      <rects>
        <_>
          4 7 15 9 -1.</_>
        <_>
          9 7 5 9 3.</_></rects>
      <tilted>0</tilted></_>
    <_>
      <rects>
        <_>
          4 10 1 6 -1.</_>
        <_>
          4 12 1 2 3.</_></rects>
      <tilted>0</tilted></_>
    <_>
      <rects>
        <_>
          4 10 5 6 -1.</_>
        <_>
          4 12 5 2 3.</_></rects>
      <tilted>0</tilted></_>
    <_>
      <rects>
        <_>
          4 14 6 8 -1.</_>
        <_>
          4 14 3 4 2.</_>
        <_>
          7 18 3 4 2.</_></rects>
      <tilted>0</tilted></_>
    <_>
      <rects>
        <_>
          4 14 15 4 -1.</_>
        <_>
          9 14 5 4 3.</_></rects>
      <tilted>0</tilted></_>
    <_>
      <rects>
        <_>
          5 7 4 12 -1.</_>
        <_>
          5 11 4 4 3.</_></rects>
      <tilted>0</tilted></_>
    <_>
      <rects>
        <_>
          5 8 10 9 -1.</_>
        <_>
          5 11 10 3 3.</_></rects>
      <tilted>0</tilted></_>
    <_>
      <rects>
        <_>
          6 5 5 9 -1.</_>
        <_>
          6 8 5 3 3.</_></rects>
      <tilted>0</tilted></_>
    <_>
      <rects>
        <_>
          6 14 4 3 -1.</_>
        <_>
          8 14 2 3 2.</_></rects>
      <tilted>0</tilted></_>
    <_>
      <rects>
        <_>
          7 4 1 14 -1.</_>
        <_>
          7 11 1 7 2.</_></rects>
      <tilted>0</tilted></_>
    <_>
      <rects>
        <_>
          7 6 16 13 -1.</_>
        <_>
          15 6 8 13 2.</_></rects>
      <tilted>0</tilted></_>
    <_>
      <rects>
        <_>
          7 7 12 5 -1.</_>
        <_>
          11 7 4 5 3.</_></rects>
      <tilted>0</tilted></_>
    <_>
      <rects>
        <_>
          7 9 12 6 -1.</_>
        <_>
          7 11 12 2 3.</_></rects>
      <tilted>0</tilted></_>
    <_>
      <rects>
        <_>
          8 0 13 20 -1.</_>
        <_>
          8 10 13 10 2.</_></rects>
      <tilted>0</tilted></_>
    <_>
      <rects>
        <_>
          8 1 9 16 -1.</_>
        <_>
          11 1 3 16 3.</_></rects>
      <tilted>0</tilted></_>
    <_>
      <rects>
        <_>
          8 4 9 8 -1.</_>
        <_>
          11 4 3 8 3.</_></rects>
      <tilted>0</tilted></_>
    <_>
      <rects>
        <_>
          8 9 9 7 -1.</_>
        <_>
          11 9 3 7 3.</_></rects>
      <tilted>0</tilted></_>
    <_>
      <rects>
        <_>
          8 14 2 9 -1.</_>
        <_>
          8 17 2 3 3.</_></rects>
      <tilted>0</tilted></_>
    <_>
      <rects>
        <_>
          8 15 2 8 -1.</_>
        <_>
          8 19 2 4 2.</_></rects>
      <tilted>0</tilted></_>
    <_>
      <rects>
        <_>
          9 6 6 5 -1.</_>
        <_>
          11 6 2 5 3.</_></rects>
      <tilted>0</tilted></_>
    <_>
      <rects>
        <_>
          9 6 8 6 -1.</_>
        <_>
          9 8 8 2 3.</_></rects>
      <tilted>0</tilted></_>
    <_>
      <rects>
        <_>
          9 7 6 5 -1.</_>
        <_>
          11 7 2 5 3.</_></rects>
      <tilted>0</tilted></_>
    <_>
      <rects>
        <_>
          9 11 4 2 -1.</_>
        <_>
          9 11 2 1 2.</_>
        <_>
          11 12 2 1 2.</_></rects>
      <tilted>0</tilted></_>
    <_>
      <rects>
        <_>
          9 17 6 6 -1.</_>
        <_>
          9 20 6 3 2.</_></rects>
      <tilted>0</tilted></_>
    <_>
      <rects>
        <_>
          10 1 2 10 -1.</_>
        <_>
          10 1 1 5 2.</_>
        <_>
          11 6 1 5 2.</_></rects>
      <tilted>0</tilted></_>
    <_>
      <rects>
        <_>
          10 6 2 5 -1.</_>
        <_>
          11 6 1 5 2.</_></rects>
      <tilted>0</tilted></_>
    <_>
      <rects>
        <_>
          10 7 7 9 -1.</_>
        <_>
          10 10 7 3 3.</_></rects>
      <tilted>0</tilted></_>
    <_>
      <rects>
        <_>
          10 14 3 6 -1.</_>
        <_>
          10 17 3 3 2.</_></rects>
      <tilted>0</tilted></_>
    <_>
      <rects>
        <_>
          10 18 6 6 -1.</_>
        <_>
          10 21 6 3 2.</_></rects>
      <tilted>0</tilted></_>
    <_>
      <rects>
        <_>
          11 2 4 8 -1.</_>
        <_>
          11 6 4 4 2.</_></rects>
      <tilted>0</tilted></_>
    <_>
      <rects>
        <_>
          11 5 8 16 -1.</_>
        <_>
          11 13 8 8 2.</_></rects>
      <tilted>0</tilted></_>
    <_>
      <rects>
        <_>
          11 7 3 3 -1.</_>
        <_>
          12 7 1 3 3.</_></rects>
      <tilted>0</tilted></_>
    <_>
      <rects>
        <_>
          11 9 6 6 -1.</_>
        <_>
          11 9 3 3 2.</_>
        <_>
          14 12 3 3 2.</_></rects>
      <tilted>0</tilted></_>
    <_>
      <rects>
        <_>
          12 3 4 18 -1.</_>
        <_>
          12 3 2 9 2.</_>
        <_>
          14 12 2 9 2.</_></rects>
      <tilted>0</tilted></_>
    <_>
      <rects>
        <_>
          12 6 2 5 -1.</_>
        <_>
          13 6 1 5 2.</_></rects>
      <tilted>0</tilted></_>
    <_>
      <rects>
        <_>
          12 6 2 6 -1.</_>
        <_>
          12 8 2 2 3.</_></rects>
      <tilted>0</tilted></_>
    <_>
      <rects>
        <_>
          12 8 2 3 -1.</_>
        <_>
          13 8 1 3 2.</_></rects>
      <tilted>0</tilted></_>
    <_>
      <rects>
        <_>
          12 8 6 13 -1.</_>
        <_>
          15 8 3 13 2.</_></rects>
      <tilted>0</tilted></_>
    <_>
      <rects>
        <_>
          13 1 4 20 -1.</_>
        <_>
          13 1 2 10 2.</_>
        <_>
          15 11 2 10 2.</_></rects>
      <tilted>0</tilted></_>
    <_>
      <rects>
        <_>
          13 7 3 4 -1.</_>
        <_>
          14 7 1 4 3.</_></rects>
      <tilted>0</tilted></_>
    <_>
      <rects>
        <_>
          13 8 3 1 -1.</_>
        <_>
          14 8 1 1 3.</_></rects>
      <tilted>0</tilted></_>
    <_>
      <rects>
        <_>
          13 8 2 8 -1.</_>
        <_>
          14 8 1 8 2.</_></rects>
      <tilted>0</tilted></_>
    <_>
      <rects>
        <_>
          13 13 5 6 -1.</_>
        <_>
          13 16 5 3 2.</_></rects>
      <tilted>0</tilted></_>
    <_>
      <rects>
        <_>
          13 19 4 4 -1.</_>
        <_>
          13 21 4 2 2.</_></rects>
      <tilted>0</tilted></_>
    <_>
      <rects>
        <_>
          14 0 4 9 -1.</_>
        <_>
          14 3 4 3 3.</_></rects>
      <tilted>0</tilted></_>
    <_>
      <rects>
        <_>
          14 0 10 2 -1.</_>
        <_>
          14 0 5 1 2.</_>
        <_>
          19 1 5 1 2.</_></rects>
      <tilted>0</tilted></_>
    <_>
      <rects>
        <_>
          14 0 5 9 -1.</_>
        <_>
          14 3 5 3 3.</_></rects>
      <tilted>0</tilted></_>
    <_>
      <rects>
        <_>
          14 2 8 8 -1.</_>
        <_>
          14 2 4 4 2.</_>
        <_>
          18 6 4 4 2.</_></rects>
      <tilted>0</tilted></_>
    <_>
      <rects>
        <_>
          14 4 2 9 -1.</_>
        <_>
          14 7 2 3 3.</_></rects>
      <tilted>0</tilted></_>
    <_>
      <rects>
        <_>
          14 8 6 9 -1.</_>
        <_>
          14 11 6 3 3.</_></rects>
      <tilted>0</tilted></_>
    <_>
      <rects>
        <_>
          14 11 4 3 -1.</_>
        <_>
          14 12 4 1 3.</_></rects>
      <tilted>0</tilted></_>
    <_>
      <rects>
        <_>
          14 14 5 4 -1.</_>
        <_>
          14 16 5 2 2.</_></rects>
      <tilted>0</tilted></_>
    <_>
      <rects>
        <_>
          15 0 8 2 -1.</_>
        <_>
          15 0 4 1 2.</_>
        <_>
          19 1 4 1 2.</_></rects>
      <tilted>0</tilted></_>
    <_>
      <rects>
        <_>
          15 9 2 6 -1.</_>
        <_>
          15 11 2 2 3.</_></rects>
      <tilted>0</tilted></_>
    <_>
      <rects>
        <_>
          15 9 6 4 -1.</_>
        <_>
          15 11 6 2 2.</_></rects>
      <tilted>0</tilted></_>
    <_>
      <rects>
        <_>
          15 14 2 9 -1.</_>
        <_>
          15 17 2 3 3.</_></rects>
      <tilted>0</tilted></_>
    <_>
      <rects>
        <_>
          16 1 2 18 -1.</_>
        <_>
          16 10 2 9 2.</_></rects>
      <tilted>0</tilted></_>
    <_>
      <rects>
        <_>
          16 12 1 2 -1.</_>
        <_>
          16 13 1 1 2.</_></rects>
      <tilted>0</tilted></_>
    <_>
      <rects>
        <_>
          17 0 1 9 -1.</_>
        <_>
          17 3 1 3 3.</_></rects>
      <tilted>0</tilted></_>
    <_>
      <rects>
        <_>
          17 0 5 12 -1.</_>
        <_>
          17 6 5 6 2.</_></rects>
      <tilted>0</tilted></_>
    <_>
      <rects>
        <_>
          17 3 4 3 -1.</_>
        <_>
          19 3 2 3 2.</_></rects>
      <tilted>0</tilted></_>
    <_>
      <rects>
        <_>
          17 12 6 1 -1.</_>
        <_>
          20 12 3 1 2.</_></rects>
      <tilted>0</tilted></_>
    <_>
      <rects>
        <_>
          18 0 6 14 -1.</_>
        <_>
          18 0 3 7 2.</_>
        <_>
          21 7 3 7 2.</_></rects>
      <tilted>0</tilted></_>
    <_>
      <rects>
        <_>
          18 3 1 16 -1.</_>
        <_>
          18 11 1 8 2.</_></rects>
      <tilted>0</tilted></_>
    <_>
      <rects>
        <_>
          18 13 6 8 -1.</_>
        <_>
          20 13 2 8 3.</_></rects>
      <tilted>0</tilted></_></features></cascade>
</opencv_storage>
